0.48519365131111;8.3977588740975;5.9681388044643;12.065192038568;-4.1323186147318;-4.0833428337822;-6.8920335647179;6.2416439904875;4.2099281646241;-7.3958346376206;1.3962456442376;8.9430131372397;3.4542101092874;7.733396223891;5.1148098043152;-1.6220205136759;8.2975345907408;8.4849370835004;4.745917924602;2.8517058170558;-3.31188144139;4.480159381799;-9.097749077116;-9.1369572580032;3.0250986407396
0.48990684145578;8.3922079058218;5.9316769459206;12.029436464089;-4.1689906579085;-4.1037696345956;-6.8659865625896;6.2734586238132;4.2316293815335;-7.3476822813894;1.3945331036896;8.9388437634204;3.4788968950884;7.7546311504237;5.1370410681213;-1.6181365494321;8.2970002132238;8.4482007464062;4.7143258802669;2.8167315973861;-3.4266670817383;4.540235075086;-9.1174137895473;-9.0584270454296;3.1070042219563
12.102066725418;-2.9408733692697;8.5167302274471;6.06046288817;-2.1750256137977;7.9682218026289;-2.273709078827;7.426281279987;1.7276271786127;-7.1934552456177;-2.8216262185785;-8.2204532080401;7.544095701677;3.7808830493997;-6.4693878990878;1.3737648422461;-5.8650162017429;2.7417824494514;-10.865016201743;-8.0671857254476;-2.6264808780021;7.3827823235463;-5.5443357808134;3.310585391172;4.612448317853
0.64703069072313;8.4149399576357;3.1691793012073;-15.838916468153;13.730096573693;-1.0053058099327;12.641489073316;-1.6632473625334;9.1524322640216;-4.5243332394869;112.21774045524;825.16386433698;9.0207306145421;-7.1291035075053;8.9925279177273;-4.5867229595119;-16.315049334392;-22.521032905195;-20.169332718328;4.601745827263;-7.985433424602;-3.3267019569561;-6.155370125388;7.8975626599232;1.0669768230334
-6.5953458609987;5.3999565696628;6.3628243151004;5.804901521503;8.6058839324668;8.5947821506736;-9.1096511480934;-9.6389218519734;12.516601939523;8.8668813445785;-7.7928159208806;1.1877168363417;-11.414802679206;8.3820942351512;-5.053781646622;9.6318519090614;-2.2034019317105;-4.9082226266911;-6.7148564624106;5.064536003232;1.0580186760839
-6.595347522099;5.4006473007745;6.3628289733472;5.8028870875313;8.6065380367225;8.5967844641787;-9.1081657398387;-9.6402392286808;12.516895274109;8.8663286459464;-7.7930354214224;1.1888164515213;-11.41482055507;8.3818588156445;-5.0537828178842;9.6294868188015;-2.2024846881306;-4.908448763668;-6.7169235195681;5.0649898094396;1.0576561861522
5.9842562010401;-8.1327998977574;-5.1334339782966;8.7872347063524;2.7872347063524;4.947328935986;-6.9609151946476;-9.9305500876672;4.9922056039687;3.9894845164427;7.9894845164427;-7.9505707854804;2.0570344435798;-1.9316443964094;-2.9263771452097;3.9883902077004;8.9883902077004;4.0020985262116;9.0224678831868;7.8772557507394;-4.0389706996574;7.8772557507394;-9.0427788533704;5.962472329075;2.4555984923985;-9.3307585607842;-8.4237614586071;3.4928724334076;-2.3275583061317
5.9852417679304;-8.1081704095947;-5.1088044901339;8.8118641945151;2.8118641945151;4.954477221525;-6.9614695520539;-9.9350522236015;4.9877034680343;3.9849823805083;7.9849823805083;-7.9522823775493;2.0413469066782;-1.9444801842132;-2.9392129330135;3.9755544198967;8.9755544198967;3.9904984209228;9.0224091743561;7.8872767121988;-4.0289497381979;7.8872767121988;-9.032757891911;5.9629020795969;2.4302144363586;-9.3492488185459;-8.4212139481663;3.3901995494581;-2.3599935734375
-8.6684818515136;8.5890635263507;21.519196647226;2.7647808132713;-7.8365490564247;31.59681393057;23.929109929374;-9.2074774466505;-10.690951608565;8.6621373400133;0.1814927546629;3.8651876149874;0.40606093728242;-6.0321971287991;8.2434152542238;-3.8594827113629;0.85207997277517;-5.3840646059274;2.1913356854815;4.0377942595664;-4.63913237929
6.731932475917;-10.924308551801;-10.029398065232;-11.491162549857;2.0251599420011;9.4824836698324;-3.6199783229225;-8.4079482372362;10.961374846637;2.0876404853903;-6.5584740247554;6.6802898922674;3.9777267661098;5.0029784181842;2.1705771487727;2.6690086440319;-5.2402003476106;4.1377369886032;7.1290977562176;7.2743199930349;-5.6294031132104